Language model created by QuickLM on Thu Aug  8 09:27:58 EDT 2019
Copyright (c) 1996-2010 Carnegie Mellon University and Alexander I. Rudnicky

The model is in standard ARPA format, designed by Doug Paul while he was at MITRE.

The code that was used to produce this language model is available in Open Source.
Please visit http://www.speech.cs.cmu.edu/tools/ for more information

The (fixed) discount mass is 0.5. The backoffs are computed using the ratio method.
This model based on a corpus of 2 sentences and 5 words

\data\
ngram 1=5
ngram 2=5
ngram 3=4

\1-grams:
-0.9031 </s> -0.3010
-0.9031 <s> -0.2430
-0.9031 BEEBO -0.2430
-1.2041 HEY -0.2430
-1.2041 OK -0.2430

\2-grams:
-0.6021 <s> HEY 0.0000
-0.6021 <s> OK 0.0000
-0.3010 BEEBO </s> -0.3010
-0.3010 HEY BEEBO 0.0000
-0.3010 OK BEEBO 0.0000

\3-grams:
-0.3010 <s> HEY BEEBO
-0.3010 <s> OK BEEBO
-0.3010 HEY BEEBO </s>
-0.3010 OK BEEBO </s>

\end\

