Language model created by QuickLM on Tue Aug  6 08:01:00 EDT 2019
Copyright (c) 1996-2010 Carnegie Mellon University and Alexander I. Rudnicky

The model is in standard ARPA format, designed by Doug Paul while he was at MITRE.

The code that was used to produce this language model is available in Open Source.
Please visit http://www.speech.cs.cmu.edu/tools/ for more information

The (fixed) discount mass is 0.5. The backoffs are computed using the ratio method.
This model based on a corpus of 3 sentences and 6 words

\data\
ngram 1=6
ngram 2=8
ngram 3=6

\1-grams:
-0.9031 </s> -0.3010
-0.9031 <s> -0.1996
-1.3802 HEY -0.2430
-1.3802 LISTEN -0.2430
-1.3802 OK -0.2430
-0.9031 TAVISH -0.2218

\2-grams:
-0.7782 <s> HEY 0.0000
-0.7782 <s> OK 0.0000
-0.7782 <s> TAVISH -0.2218
-0.3010 HEY TAVISH -0.1249
-0.3010 LISTEN </s> -0.3010
-0.3010 OK TAVISH -0.1249
-0.4771 TAVISH </s> -0.3010
-0.7782 TAVISH LISTEN 0.0000

\3-grams:
-0.3010 <s> HEY TAVISH
-0.3010 <s> OK TAVISH
-0.3010 <s> TAVISH LISTEN
-0.3010 HEY TAVISH </s>
-0.3010 OK TAVISH </s>
-0.3010 TAVISH LISTEN </s>

\end\

